34 64
1 -0.13870753 -0.13935198 0.096591294 -0.23950632 -0.32862267 -0.18272375 0.2462827 0.10059955 0.24953817 -0.18728377 -0.05659095 -0.16675276 -0.107186064 0.26993743 -0.58415455 -0.22202781 -0.00880035 -0.28323916 0.32225192 -0.29209822 -0.056764673 -0.04837857 0.10618288 -0.22612992 0.056054864 0.42294344 0.10441254 -0.24673845 0.092218004 0.1084891 0.26721564 0.04684183 -0.17362103 0.6177539 0.0074090017 -0.032767538 -0.21209979 -0.035146005 0.00094795047 0.28098994 -0.30321726 0.11179709 -0.00235139 0.1808449 -0.11880176 0.5225744 -0.1627999 -0.139611 0.34702826 -0.09446402 0.13902926 0.20698486 -0.015479211 0.035941668 0.3023133 -0.18417151 -0.07514598 -0.066088796 0.10727728 0.13968357 -0.04755785 -0.17552954 -0.4279494 0.1568816
34 -0.096788906 -0.3218372 0.1419554 -0.1057631 -0.18862914 -0.13795984 0.14995159 0.102356724 0.32229933 -0.23537162 0.13664638 -0.16624524 -0.04840581 0.16935012 -0.6008442 -0.20482653 -0.07060171 -0.15096983 0.2979639 -0.2588745 -0.12758441 -0.31469092 0.028238628 -0.12183962 0.021896679 0.47894144 0.22967188 -0.35175627 0.10774036 0.20005909 0.18829605 -0.058951862 -0.2912607 0.62752753 0.065332524 -0.12836494 -0.09642602 0.017959338 0.12664932 0.06336408 -0.10647823 0.074534886 0.020129474 0.10444691 -0.19181208 0.46426105 0.0846902 -0.050176498 0.3146142 -0.12158978 0.019973472 0.1926548 0.03090154 0.14913738 0.36653218 -0.0722486 0.13289711 -0.09689663 0.08065052 0.457465 -0.14634116 -0.23175244 -0.24562195 0.10352223
33 -0.08457539 -0.3251938 0.14410707 -0.115491346 -0.19505857 -0.14066572 0.1576957 0.097302176 0.3343917 -0.23195624 0.13926175 -0.15959518 -0.055173066 0.16997714 -0.5935847 -0.20701149 -0.0672171 -0.14285383 0.3054807 -0.24688655 -0.11865282 -0.32213753 0.011273129 -0.12078874 0.02467309 0.4772151 0.222863 -0.35451168 0.110652536 0.19416432 0.19530348 -0.071924046 -0.28929022 0.6184762 0.07632371 -0.1342644 -0.10163637 0.017468875 0.11572035 0.063975506 -0.11578994 0.07687023 0.009514611 0.10268544 -0.19609487 0.4616812 0.0891096 -0.055898283 0.29947013 -0.11101135 0.010005147 0.18205117 0.032897297 0.15233801 0.3618194 -0.067475714 0.13201746 -0.09944675 0.07241365 0.4567903 -0.1430964 -0.23506986 -0.23994374 0.104047276
3 -0.10181515 -0.23370285 0.11642275 -0.15256034 -0.2523384 -0.15351702 0.18093252 0.078837544 0.28723097 -0.21300499 0.05855653 -0.14196162 -0.07951347 0.20074888 -0.5724458 -0.19412537 -0.04533401 -0.18073589 0.2981106 -0.2619629 -0.07554327 -0.19572723 0.057797518 -0.16668221 0.03809575 0.44470197 0.16252695 -0.3112185 0.08458713 0.14635956 0.2048846 -0.012912104 -0.2374829 0.6041385 0.03996087 -0.08568118 -0.15413071 0.0051548304 0.06688586 0.15716691 -0.17125374 0.083932675 0.009911236 0.139407 -0.14977896 0.45805454 -0.019634366 -0.08710379 0.31784537 -0.11018949 0.056998026 0.18386582 -0.002902469 0.10632869 0.31986216 -0.113349974 0.05339194 -0.08139187 0.07939665 0.3246817 -0.10841119 -0.19917437 -0.30509335 0.1237029
2 -0.110443465 -0.18455079 0.10566055 -0.19511314 -0.28895253 -0.16797328 0.20072146 0.084562585 0.2547908 -0.20784277 0.015191622 -0.14325349 -0.09470402 0.23386754 -0.55597866 -0.20409611 -0.02016166 -0.22521676 0.30822277 -0.27411768 -0.05883028 -0.12274028 0.08184665 -0.1935461 0.044896845 0.428452 0.13107993 -0.2867376 0.08411866 0.12696378 0.23131004 0.0091143465 -0.19678429 0.6055729 0.02282151 -0.058780074 -0.19087344 -0.02486748 0.022628985 0.2123188 -0.23102008 0.10815732 0.0071331873 0.15265521 -0.14016935 0.48246488 -0.08648283 -0.108678766 0.33035454 -0.1100709 0.083688825 0.20089303 -0.008879811 0.07836951 0.29707578 -0.13756946 0.007708613 -0.08542968 0.083650425 0.24015683 -0.076539956 -0.18678209 -0.36361808 0.15050636
4 -0.11965328 -0.18619083 0.121983066 -0.19001521 -0.28800064 -0.16878477 0.20451714 0.0876614 0.2593797 -0.19945043 0.01349953 -0.1498895 -0.093428165 0.23874901 -0.56571114 -0.19934732 -0.015556653 -0.22655876 0.29844138 -0.2718139 -0.063368395 -0.12003596 0.08508468 -0.19620158 0.04883484 0.43426266 0.1427922 -0.2837826 0.08157408 0.12094391 0.21955948 0.0059028543 -0.2014679 0.61717117 0.03507003 -0.051471133 -0.18930395 -0.015220377 0.03277621 0.2024224 -0.23945323 0.10343206 -0.004334691 0.15473801 -0.13855335 0.49044624 -0.09528323 -0.115858436 0.33655152 -0.09970584 0.09754349 0.1951478 -0.012942461 0.07668978 0.31118873 -0.14283898 -0.0047566476 -0.085100986 0.08104813 0.22733156 -0.07211139 -0.18332262 -0.3712286 0.15432625
32 -0.10261624 -0.2802663 0.1320012 -0.15208465 -0.23476744 -0.1719868 0.18223915 0.09542323 0.31763524 -0.20319685 0.09159233 -0.15393871 -0.073433764 0.20526807 -0.58137614 -0.20177673 -0.05698265 -0.17618623 0.3132113 -0.25915617 -0.11130902 -0.26608625 0.030929236 -0.13088955 0.021099934 0.46088624 0.19869477 -0.3216982 0.09776602 0.19158006 0.20851216 -0.056035183 -0.26681295 0.6233578 0.07321905 -0.10025401 -0.12126454 0.00090397673 0.09710736 0.11818663 -0.16583937 0.09017383 -0.0060338327 0.113133304 -0.17123196 0.46404332 0.023474932 -0.070306875 0.32070312 -0.11375634 0.02790705 0.19596806 0.010742412 0.11840993 0.34524342 -0.10093975 0.082635865 -0.09907733 0.087767795 0.38883963 -0.11305965 -0.22894551 -0.2924607 0.1044446
14 -0.1079563 -0.1978493 0.112417355 -0.15221016 -0.24458455 -0.14231679 0.1788217 0.07886958 0.23859008 -0.18644257 0.029807594 -0.14679965 -0.070316695 0.19529955 -0.5189487 -0.18630454 -0.021016875 -0.19186722 0.27382267 -0.2358123 -0.06517206 -0.13717923 0.053396948 -0.16635744 0.04250291 0.39850366 0.1357375 -0.26272106 0.07709713 0.12625279 0.20622522 -0.012268295 -0.20626664 0.5529135 0.037679408 -0.072432816 -0.15622862 -0.017275022 0.037951503 0.15805125 -0.18441263 0.08871546 0.002841381 0.12714897 -0.13909774 0.43907645 -0.048635643 -0.09257115 0.28957978 -0.08721531 0.06461961 0.17662065 -0.0037576784 0.07696188 0.28768194 -0.11968875 0.017830107 -0.070162535 0.07462939 0.24597454 -0.08315982 -0.16933194 -0.313363 0.12580928
24 -0.09377173 -0.29835865 0.13882065 -0.12875319 -0.19432344 -0.14565183 0.15630773 0.08585328 0.30893892 -0.20569275 0.12441326 -0.14812836 -0.054266635 0.18076602 -0.5775167 -0.20256127 -0.056973156 -0.16488911 0.28747514 -0.23846245 -0.11517213 -0.2928616 0.0137784155 -0.1162955 0.014727731 0.44888073 0.21182732 -0.32385325 0.09974792 0.19839503 0.19630545 -0.06756888 -0.2693849 0.5971931 0.07607181 -0.12333488 -0.09459471 0.0071594017 0.107592896 0.08626411 -0.12777418 0.07227711 -0.00034899448 0.10232954 -0.18500887 0.44536433 0.06733083 -0.06286292 0.303274 -0.099990815 0.019419892 0.18776971 0.025017906 0.13952164 0.3444101 -0.08004541 0.11005554 -0.08727776 0.08102446 0.41044754 -0.12864086 -0.22727022 -0.26011017 0.08940179
9 -0.09906612 -0.26946092 0.119524196 -0.1450971 -0.23056014 -0.16318971 0.17807515 0.09972602 0.3011719 -0.20719483 0.07813107 -0.16316831 -0.07173656 0.19435775 -0.59145683 -0.21202178 -0.042507727 -0.18797877 0.30474064 -0.2587334 -0.10154763 -0.2293162 0.038989652 -0.15446468 0.027165331 0.4513423 0.19074108 -0.32284015 0.10330189 0.17049685 0.21437143 -0.037447244 -0.2562904 0.61946315 0.05760159 -0.10195131 -0.1267941 0.0057761655 0.07375504 0.13698483 -0.16465752 0.08146781 0.003294209 0.13307871 -0.1683967 0.477317 0.01685983 -0.08164623 0.31956512 -0.1096719 0.04535932 0.19930422 0.014365328 0.124784224 0.32938403 -0.10646303 0.075908676 -0.086952426 0.076220386 0.35579777 -0.11607433 -0.20835751 -0.29105598 0.11311885
8 -0.10193857 -0.18145207 0.11412436 -0.17638251 -0.26599592 -0.16349927 0.18920307 0.07716027 0.25108922 -0.19168401 0.020533679 -0.13744147 -0.0827863 0.20688419 -0.5393967 -0.20072085 -0.026906226 -0.20919843 0.2909506 -0.25796714 -0.060794745 -0.12753281 0.0786599 -0.18223946 0.037345033 0.413493 0.13888901 -0.26645812 0.08375575 0.12065384 0.20410864 0.008971531 -0.20771632 0.57463014 0.026386382 -0.060328122 -0.17139456 -0.0140561825 0.028807728 0.19104688 -0.21504429 0.102116875 5.5445034e-06 0.14349166 -0.13560967 0.4614758 -0.0693287 -0.10504144 0.31054965 -0.10177188 0.08162315 0.18792462 -0.0072806943 0.08622944 0.29082164 -0.12847462 0.007477881 -0.084042035 0.07045935 0.23327379 -0.07147051 -0.18042453 -0.33264068 0.13437474
28 -0.1044663 -0.2652485 0.13653268 -0.13410933 -0.22360668 -0.16208795 0.16874821 0.08951701 0.30044624 -0.2091978 0.09179574 -0.14638048 -0.060384694 0.19944456 -0.5677545 -0.19666116 -0.049795985 -0.17203198 0.29846433 -0.2501461 -0.09970094 -0.24101298 0.038514253 -0.13611542 0.030387511 0.43456122 0.18355736 -0.30633932 0.09664849 0.18502432 0.19585383 -0.045366403 -0.2583933 0.59676033 0.06913554 -0.10140262 -0.120768376 0.008543197 0.08124459 0.11575583 -0.16239548 0.07719876 0.0045986297 0.121910445 -0.17615429 0.44454795 0.03132694 -0.07737474 0.30880415 -0.10756206 0.034798775 0.18333215 0.0067728036 0.109572805 0.33558375 -0.10419301 0.07527477 -0.07950025 0.072649024 0.3535833 -0.11008553 -0.21698488 -0.2827623 0.107678615
6 -0.14258268 -0.14467391 0.10892753 -0.23350461 -0.33263862 -0.19094299 0.26573715 0.11316992 0.26454028 -0.18747395 -0.07706986 -0.18912576 -0.12081344 0.2834436 -0.61316466 -0.25721455 -0.021810196 -0.3262746 0.3244011 -0.29482076 -0.08733805 -0.053672094 0.089736626 -0.22681957 0.06118624 0.42677724 0.11585138 -0.25686 0.11196998 0.14286704 0.2852817 0.038066585 -0.19561458 0.6429325 0.026389446 -0.022939404 -0.20126076 -0.02755575 -0.0016122932 0.2967582 -0.32949165 0.121171415 0.012547548 0.1908734 -0.11645601 0.5597904 -0.1640624 -0.14940932 0.36729518 -0.1085611 0.14516455 0.21991049 -0.019623896 0.023154419 0.33285087 -0.19690973 -0.09241682 -0.045670316 0.1103609 0.14047235 -0.043692343 -0.16708782 -0.44286194 0.17230627
7 -0.14185973 -0.1517318 0.117918156 -0.23892854 -0.3314493 -0.18931693 0.26254627 0.11709394 0.26875907 -0.18255915 -0.06271057 -0.1839298 -0.11376285 0.26782307 -0.6177713 -0.26156715 -0.03237473 -0.3206446 0.32406563 -0.30669832 -0.08925793 -0.073378235 0.088723294 -0.21640195 0.0587201 0.4399317 0.12331348 -0.2631375 0.11486691 0.14910315 0.28382346 0.037361313 -0.190212 0.6379259 0.028865956 -0.027615998 -0.20699948 -0.036292575 0.009282099 0.2917785 -0.32208067 0.12344921 0.0117402235 0.1916684 -0.13052303 0.5584182 -0.15024029 -0.15205267 0.36287475 -0.09899976 0.13521293 0.21258037 -0.01829122 0.033615485 0.33279645 -0.20465055 -0.08164254 -0.046049744 0.12118364 0.16235694 -0.051544327 -0.17478186 -0.4338935 0.15498602
31 -0.103252344 -0.26079032 0.12989141 -0.13326845 -0.21628425 -0.14928997 0.16393265 0.085569575 0.29100367 -0.20797244 0.08172358 -0.15553474 -0.06568135 0.1924045 -0.56410176 -0.19875161 -0.04439558 -0.18160653 0.28929353 -0.254384 -0.09577657 -0.2178946 0.046434462 -0.14262648 0.02995553 0.44218132 0.1831967 -0.3070655 0.09120628 0.16345651 0.19690035 -0.025572566 -0.24503006 0.59070253 0.059039235 -0.102309704 -0.13634713 0.01002785 0.072507694 0.12949726 -0.1568792 0.08991768 0.014106213 0.11515675 -0.16404508 0.4478055 0.007026102 -0.082859345 0.2963812 -0.1121236 0.046571124 0.18921566 0.014229889 0.1215634 0.31908593 -0.1037408 0.07074981 -0.0892364 0.07321172 0.33953115 -0.10267557 -0.21330646 -0.28669813 0.119061865
30 -0.10151019 -0.3069418 0.14711528 -0.13470824 -0.20459725 -0.1501188 0.16974254 0.094543144 0.33140397 -0.22535983 0.124307 -0.16672964 -0.054188844 0.1872281 -0.61256784 -0.21353634 -0.068332426 -0.1734129 0.30267912 -0.2674859 -0.118531406 -0.29644135 0.01782896 -0.13134038 0.025114538 0.47073895 0.22303753 -0.3538319 0.10742901 0.19591184 0.19890799 -0.057973165 -0.28228348 0.63970494 0.075777665 -0.12894565 -0.11051797 0.018976556 0.11589575 0.09486006 -0.1363865 0.0743036 0.007365944 0.11647807 -0.19034928 0.4794649 0.06786859 -0.07507402 0.31453001 -0.11922797 0.029105194 0.20260058 0.029163355 0.14338808 0.3671228 -0.079739004 0.11040508 -0.09792989 0.08348174 0.4332691 -0.14203653 -0.24110025 -0.26934585 0.09819671
25 -0.089723654 -0.252254 0.13589084 -0.12581691 -0.21327987 -0.16048793 0.1558806 0.08373366 0.27875987 -0.18813388 0.09586204 -0.13831857 -0.06368695 0.17887585 -0.52067477 -0.18652575 -0.054192442 -0.15547961 0.28413293 -0.23815042 -0.091747575 -0.25804457 0.019170053 -0.116550796 0.019037697 0.41147324 0.18378824 -0.29589677 0.08717584 0.17912537 0.18601196 -0.05677268 -0.24484104 0.5617782 0.067991056 -0.10274713 -0.09559962 0.012873577 0.08522432 0.10661184 -0.14730547 0.086369544 -0.011259612 0.10745071 -0.16926265 0.41926602 0.029978134 -0.05641849 0.2781942 -0.10724454 0.022677716 0.16413595 0.022150848 0.11699448 0.31150013 -0.09259251 0.08279542 -0.09178434 0.07947211 0.3647307 -0.10580645 -0.19871287 -0.25902537 0.09952005
29 -0.09939722 -0.23688985 0.11640112 -0.1385611 -0.22047415 -0.15118171 0.1588935 0.08906633 0.27327895 -0.19912362 0.07531821 -0.13871601 -0.06881495 0.17591512 -0.54375046 -0.18559612 -0.038725615 -0.17447592 0.28341463 -0.2462383 -0.09704012 -0.21825525 0.03927462 -0.12968032 0.03372585 0.42488828 0.16852324 -0.30040246 0.08431313 0.16698304 0.19321387 -0.042823467 -0.23874429 0.56564885 0.050224874 -0.08736585 -0.122032136 0.010667073 0.076696165 0.116127536 -0.14736944 0.07938974 -0.0057162247 0.10805959 -0.16411638 0.43385074 0.006850571 -0.06987579 0.29462388 -0.09365859 0.035499394 0.17660055 0.0042796014 0.1082678 0.31671995 -0.08756125 0.07370926 -0.08443315 0.08158667 0.3364797 -0.110670485 -0.1981595 -0.2701374 0.10974384
5 -0.13142563 -0.1445995 0.109121054 -0.22386773 -0.29577622 -0.17127551 0.22822897 0.1038106 0.2523926 -0.1766079 -0.05540959 -0.17146379 -0.1089329 0.24692875 -0.56863946 -0.23515427 -0.021145655 -0.28646448 0.3113529 -0.27758443 -0.075963855 -0.07483792 0.07423693 -0.20064901 0.043259367 0.41061923 0.12308141 -0.24193679 0.108493775 0.1373379 0.2647684 0.028566714 -0.19217168 0.59381425 0.019877186 -0.024808984 -0.18416157 -0.021797307 0.018480267 0.26290762 -0.29270083 0.11060422 -0.0049991114 0.16801034 -0.12352715 0.50418556 -0.1316119 -0.13015556 0.32744765 -0.09388824 0.12483157 0.19376911 -0.010789615 0.034567952 0.30523726 -0.17737946 -0.06979546 -0.056232933 0.10145548 0.15503858 -0.057790197 -0.17075236 -0.40709096 0.15370584
11 -0.13321225 -0.15338472 0.10729052 -0.20849472 -0.30635267 -0.17892683 0.23647252 0.103050284 0.23891456 -0.17485343 -0.053079344 -0.17135236 -0.10688718 0.25377113 -0.5639749 -0.2294842 -0.019310514 -0.28398484 0.29355532 -0.27581394 -0.07624847 -0.0643909 0.080755755 -0.19470134 0.04850664 0.40599066 0.11879501 -0.25053722 0.09834282 0.13631228 0.25623265 0.022533044 -0.18471745 0.5804657 0.015772568 -0.026194604 -0.18705809 -0.030908728 0.014775834 0.25103438 -0.28911984 0.115373746 0.00072848983 0.16165726 -0.10923269 0.506322 -0.13368663 -0.12906176 0.3342168 -0.09188681 0.11515362 0.20039918 -0.008833217 0.044836346 0.30688253 -0.18068692 -0.061436143 -0.06205198 0.109066434 0.16622113 -0.04309574 -0.15626794 -0.39707172 0.14973117
26 -0.10090231 -0.2707868 0.1466936 -0.14433593 -0.21310176 -0.16990727 0.16422182 0.09086555 0.31164846 -0.19668885 0.109930225 -0.15177135 -0.06740295 0.1975189 -0.5651878 -0.20403466 -0.06189086 -0.17268051 0.29817113 -0.25345904 -0.10872631 -0.27493736 0.01564516 -0.120979816 0.030299628 0.44967988 0.1989262 -0.31837884 0.10233994 0.19223028 0.19082402 -0.05031515 -0.2682556 0.59853125 0.07011689 -0.1175904 -0.09511431 3.643233e-05 0.08979288 0.10584996 -0.14128642 0.09016229 0.00095614314 0.11369863 -0.1762638 0.4544944 0.047273505 -0.072057076 0.3047481 -0.10415548 0.017564645 0.17299812 0.013582823 0.12779422 0.33723843 -0.100594915 0.09667965 -0.09662014 0.07699557 0.39157632 -0.122475594 -0.22769019 -0.2786326 0.10201781
20 -0.11324953 -0.21947902 0.111518465 -0.17518753 -0.25685868 -0.1696412 0.19233754 0.09709894 0.2714843 -0.19740339 0.03716509 -0.16138552 -0.087361835 0.20912439 -0.56301737 -0.20109677 -0.031494047 -0.2156324 0.29631293 -0.2621371 -0.07486074 -0.15615505 0.068570174 -0.17404366 0.046946384 0.44003132 0.15087335 -0.2816389 0.089542665 0.15009676 0.22177066 -0.0069453954 -0.22213008 0.5965143 0.040309712 -0.077103086 -0.16596991 -0.0041142944 0.056654323 0.18112083 -0.20890844 0.10363087 -0.0015567726 0.14648758 -0.1415577 0.4825329 -0.04687815 -0.092276014 0.31353718 -0.104019344 0.07425307 0.19558516 -0.0065844613 0.09787943 0.3126825 -0.1251364 0.024591561 -0.07803097 0.079335 0.26945025 -0.08885167 -0.20000906 -0.32844925 0.13341512
13 -0.10873249 -0.19012597 0.10586502 -0.18192594 -0.2562599 -0.16257119 0.1866887 0.08198412 0.2556394 -0.19765209 0.018565392 -0.14032404 -0.08794209 0.21071209 -0.5505763 -0.20341852 -0.021516185 -0.2060592 0.2895897 -0.25735328 -0.075517096 -0.13698468 0.0681443 -0.18297748 0.04460357 0.41484413 0.14965907 -0.27544656 0.08882821 0.13337435 0.20721532 0.0007177771 -0.21011382 0.57418686 0.03345874 -0.06416571 -0.16017826 -0.016695185 0.03808378 0.1827827 -0.21207613 0.090513736 -0.0049780575 0.14659303 -0.12827316 0.457728 -0.062652946 -0.10724547 0.30378667 -0.10684183 0.084622234 0.19501765 -0.007652771 0.0725269 0.29893297 -0.12266461 0.015378558 -0.08335024 0.0832896 0.251161 -0.075247355 -0.17959763 -0.33349302 0.14030148
18 -0.11083571 -0.17960231 0.10434636 -0.1730057 -0.25948858 -0.15984625 0.2022544 0.07835564 0.2492716 -0.19216903 0.0014839601 -0.14285192 -0.08026081 0.21164908 -0.5399434 -0.20437033 -0.020367298 -0.22325414 0.28714904 -0.2501985 -0.06683315 -0.113502935 0.06581223 -0.18613432 0.050049707 0.3977444 0.14003655 -0.25954005 0.093944184 0.12159141 0.22301409 0.009746934 -0.18907888 0.56341755 0.022420207 -0.05401562 -0.1678502 -0.018360637 0.037674107 0.19838934 -0.21502982 0.096267074 0.005754849 0.1477754 -0.12836242 0.45536974 -0.074956656 -0.10576582 0.31221294 -0.10745896 0.08804152 0.19468099 -0.008544174 0.07321909 0.2925958 -0.13465454 0.0017821837 -0.07997496 0.08514421 0.22916822 -0.063115075 -0.18213043 -0.3333861 0.12998958
22 -0.10735441 -0.1858759 0.10507362 -0.1758494 -0.26175648 -0.16056268 0.19481967 0.0860014 0.25440225 -0.18337949 0.0052720546 -0.14366858 -0.08560979 0.20701869 -0.5268944 -0.18865249 -0.03162924 -0.21131769 0.27498394 -0.24189381 -0.06487064 -0.11777446 0.07621211 -0.17317246 0.037781846 0.39355814 0.13918939 -0.26230937 0.07982734 0.12220363 0.20857964 -0.00013823746 -0.18594785 0.5541583 0.021065079 -0.050036516 -0.1656256 -0.0124269305 0.027957637 0.19129738 -0.21617556 0.090900555 -0.0030841888 0.1423321 -0.12189989 0.45591557 -0.064002044 -0.10483915 0.3098971 -0.10335413 0.08929779 0.19024664 -0.009712001 0.07346728 0.2816257 -0.13921614 0.006515624 -0.07940906 0.07729474 0.22431733 -0.06721126 -0.17372346 -0.32242113 0.12826751
17 -0.13008125 -0.15021102 0.111456744 -0.22342423 -0.31775877 -0.17583208 0.25661016 0.10491743 0.25818098 -0.1731488 -0.0740674 -0.18030423 -0.116537765 0.27183938 -0.5925732 -0.25419873 -0.03074662 -0.3192577 0.31814155 -0.29875395 -0.093603976 -0.06139271 0.08241218 -0.21818285 0.05203375 0.41927156 0.11323767 -0.2437562 0.1166351 0.14667587 0.28484455 0.025224712 -0.18690309 0.61636734 0.029071154 -0.018337356 -0.1974473 -0.026073972 0.010516166 0.28903142 -0.31307125 0.11030339 0.0016788273 0.18226862 -0.11725325 0.537721 -0.1498295 -0.14692797 0.35409987 -0.10516589 0.13638823 0.21381691 -0.0070940233 0.026828056 0.32848188 -0.20106506 -0.08576143 -0.0412073 0.11847026 0.14803228 -0.04423003 -0.15994139 -0.43231645 0.16260414
23 -0.08677535 -0.26334652 0.11978573 -0.11961439 -0.21166417 -0.13777857 0.16042462 0.09138138 0.28971714 -0.20848022 0.093933806 -0.14585237 -0.058443572 0.17851876 -0.55714214 -0.19647329 -0.05839849 -0.16252217 0.27709448 -0.2472239 -0.10454013 -0.23670693 0.02871728 -0.13826548 0.030438822 0.43093592 0.18973534 -0.29730093 0.09365832 0.1754714 0.18726079 -0.03804357 -0.2397337 0.5727063 0.057429772 -0.09458184 -0.1099098 0.013650703 0.09040751 0.10842066 -0.14130233 0.07418399 0.009585118 0.11260415 -0.16924211 0.4360809 0.035149436 -0.077425346 0.2990531 -0.109684736 0.038545333 0.18360192 0.014440482 0.12370387 0.32751644 -0.09679062 0.07077211 -0.08690514 0.074573226 0.35283172 -0.11112855 -0.20416999 -0.25704756 0.09494825
10 -0.093737975 -0.24977691 0.12283989 -0.13755192 -0.21957372 -0.1557436 0.1693614 0.08705393 0.28220987 -0.1961902 0.071785636 -0.15218516 -0.06781887 0.1912211 -0.55632067 -0.19415785 -0.03494654 -0.19066246 0.28812853 -0.24262148 -0.09695001 -0.21190067 0.045159753 -0.14783867 0.036164526 0.43318638 0.16500176 -0.3015221 0.09614836 0.16011812 0.20166291 -0.024472281 -0.23890473 0.58599997 0.042535633 -0.08597637 -0.138968 0.001466315 0.06602534 0.13691412 -0.15865573 0.08138242 0.008235331 0.12227329 -0.16383542 0.45783475 0.003499209 -0.07396627 0.2995269 -0.09510523 0.04881753 0.18183228 0.013566233 0.10991702 0.31861237 -0.10505295 0.060986176 -0.07515372 0.07061737 0.33008766 -0.103818424 -0.20858036 -0.29651588 0.12496488
15 -0.091797054 -0.24956922 0.121411555 -0.119910985 -0.2031101 -0.14097199 0.16028166 0.07876523 0.26916522 -0.19413933 0.08320594 -0.14039214 -0.05374453 0.1764309 -0.5178394 -0.17857239 -0.05510055 -0.16147229 0.2702731 -0.2229924 -0.09516636 -0.22530968 0.0285212 -0.12191203 0.025131147 0.40068743 0.17615676 -0.28986442 0.09393052 0.15602407 0.18568009 -0.0448356 -0.22461203 0.5422134 0.054139506 -0.09601998 -0.10688278 0.00640159 0.08623227 0.09826156 -0.142378 0.07391891 0.0032109597 0.11075796 -0.1587813 0.41338807 0.02743007 -0.06565047 0.27445546 -0.08982096 0.040692627 0.17590521 0.011470622 0.1169531 0.30206695 -0.08755913 0.06361823 -0.08391522 0.07434042 0.32340536 -0.107390635 -0.19628699 -0.24728248 0.09418924
19 -0.0872006 -0.25197905 0.11327955 -0.113657 -0.19855851 -0.12793893 0.15816319 0.07935635 0.27838516 -0.18884523 0.07963484 -0.14576992 -0.05283432 0.17463158 -0.5273514 -0.17812847 -0.0551496 -0.15682474 0.264815 -0.22796573 -0.10341898 -0.22443922 0.03365208 -0.119339995 0.02762032 0.40599933 0.17914218 -0.2962655 0.08477513 0.162358 0.18258744 -0.030560242 -0.231222 0.5510533 0.05601516 -0.09614499 -0.110909365 0.013610688 0.08894099 0.1005272 -0.12563144 0.07496558 0.014712829 0.09958967 -0.16347407 0.4149468 0.024280963 -0.070643164 0.28166968 -0.09254615 0.025856642 0.16632283 0.019863771 0.11646815 0.3096273 -0.09396747 0.07399005 -0.08406711 0.08136858 0.3322349 -0.10652372 -0.20240495 -0.2510481 0.09934631
16 -0.09260247 -0.25938123 0.1171246 -0.11703032 -0.19613138 -0.12662548 0.15611449 0.089778066 0.29155263 -0.2052073 0.095941804 -0.14582635 -0.049255446 0.1652296 -0.5450688 -0.19135387 -0.05331454 -0.16515212 0.27224973 -0.2376482 -0.0969697 -0.2501867 0.02634774 -0.12000345 0.018083239 0.4140317 0.19289178 -0.29795194 0.100188665 0.17334543 0.19184814 -0.037677266 -0.24958262 0.55207515 0.057610415 -0.103948325 -0.11093239 0.005262865 0.09925948 0.08611855 -0.12777758 0.0684006 0.016215341 0.09811651 -0.16944143 0.41523656 0.045717042 -0.0729796 0.27959386 -0.1055533 0.027373161 0.17056817 0.021719119 0.12491835 0.30992743 -0.07895449 0.083283536 -0.07968075 0.082864165 0.36531332 -0.1116978 -0.2030611 -0.25286415 0.08897636
21 -0.09348167 -0.26220098 0.11358471 -0.11863164 -0.19601755 -0.14164518 0.15634453 0.083200544 0.29017252 -0.20836619 0.089903116 -0.15583234 -0.058689382 0.17238055 -0.546025 -0.19270843 -0.05607993 -0.16745688 0.2764077 -0.23731722 -0.096626684 -0.23786472 0.02453601 -0.12866572 0.017937953 0.42575732 0.19397815 -0.30843845 0.093467265 0.16536413 0.19371836 -0.039274402 -0.24446711 0.57381314 0.055804003 -0.09489073 -0.11276421 0.0023241367 0.08686935 0.10910984 -0.13149622 0.08049718 0.004016907 0.11405862 -0.16829373 0.43491402 0.03646011 -0.07364416 0.29583022 -0.09795684 0.036886413 0.18426917 0.01354386 0.11348578 0.3230415 -0.08772335 0.08426092 -0.08286528 0.07897941 0.3544325 -0.1069332 -0.20505008 -0.25876498 0.10147517
27 -0.11000676 -0.2819404 0.12605122 -0.13651112 -0.21698144 -0.15815382 0.16929796 0.0962022 0.3073458 -0.22663242 0.10607381 -0.15756607 -0.071345426 0.18958293 -0.6079509 -0.21416532 -0.051794384 -0.18831308 0.3076839 -0.2578424 -0.11272642 -0.26718622 0.037846453 -0.13562919 0.024141576 0.47348607 0.19646452 -0.33096406 0.09695033 0.18639837 0.2118023 -0.04228683 -0.27509573 0.6277807 0.0584186 -0.10453471 -0.12042241 0.008343299 0.1021386 0.10879925 -0.15815283 0.07832181 0.0078047956 0.12745129 -0.1736225 0.46961033 0.03298736 -0.0707118 0.3261315 -0.10378558 0.030977927 0.20218042 0.026876187 0.13605107 0.3499508 -0.09086149 0.0896492 -0.089026056 0.08689443 0.38921547 -0.1184233 -0.22078104 -0.2917661 0.11840275
12 -0.10591395 -0.17502157 0.10923264 -0.1790383 -0.256651 -0.14579014 0.18931259 0.07636474 0.24427189 -0.17575406 0.009234075 -0.1317315 -0.07756152 0.21272998 -0.50796396 -0.20024548 -0.0267984 -0.20421436 0.27520704 -0.23958859 -0.06307021 -0.115109436 0.06228381 -0.16689926 0.03897372 0.38529125 0.12888408 -0.25337133 0.08812858 0.118428804 0.20043513 0.0071310704 -0.18069582 0.5410972 0.025268903 -0.05433215 -0.14835986 -0.0090413885 0.036785383 0.19300538 -0.22008476 0.09680627 -0.0025393523 0.14348023 -0.11475447 0.43317643 -0.080618046 -0.095659 0.29701105 -0.09202439 0.08718905 0.17564015 -0.005349368 0.059419464 0.27456263 -0.1307109 -0.00958907 -0.06821158 0.08593923 0.20547988 -0.0655587 -0.16126902 -0.3318787 0.13348621
